Format: C
Channel: 256
[ 
2773
-875
3160
-1528
8003
12938
7907
-1488
11382
2288
-2939
4484
10274
-878
-2435
-4545
6894
903
-4839
10096
1974
8308
14509
5805
6876
2638
3037
11946
4790
4857
2802
7425
9088
4597
8245
1159
6897
10322
2615
3073
9129
10243
1259
7428
-3076
2566
-1735
-3850
9280
-2542
8666
4188
737
3658
9688
9592
8348
6942
992
1555
6915
4869
5624
6770
13736
368
-2434
851
-6887
13932
3591
-5473
-1234
2057
8644
154
10876
1319
1849
7160
6214
10830
9831
877
3333
832
-4491
3556
467
-3484
2779
1774
4463
1803
6323
4225
2495
10631
9249
-2109
-12903
5066
10938
-416
9554
6411
-675
-7336
5326
7385
7347
-1804
2393
3349
5331
6823
7306
2559
4474
-809
4484
7342
776
-2931
-356
1046
12578
7563
5030
3316
-5012
3908
5428
15658
8179
6868
10489
2599
3717
5872
7065
790
7463
3174
5938
-1356
13071
2126
1784
6093
-2179
-1391
1320
6308
1648
6214
-8013
-8221
-1349
11400
-466
10845
1487
4810
1112
11671
543
1516
5318
2959
7528
10670
6055
3767
4312
-899
8629
3598
-6637
3523
820
1195
13411
5838
7217
13802
9447
2620
-4338
9501
8438
363
5564
5134
-5978
4621
7073
7168
5295
2428
3116
5002
6744
10035
6770
-2746
-2243
12799
8928
5435
-1397
-997
4620
6381
6435
-276
6007
5227
963
-766
6828
913
13848
11069
8591
11540
-1661
9208
13814
2532
-13830
9627
6063
1735
11154
-1677
8826
3824
4086
1045
-4005
-3220
8683
-561
10419
903
4317
4320
1875
7882
9778
8335
10454
-4153
2898
2599
] 
