Format: C
Channel: 256
[ 
14169
8672
10885
5710
4987
17268
2012
-4481
12790
4464
4343
1356
14145
12622
8427
13538
606
3985
-1721
7807
13844
9540
12886
7235
11645
-1749
8447
2766
12515
10553
18392
18451
8
4827
5823
-2265
11778
8760
1940
6909
-17231
12608
14321
17151
10063
16868
12296
2860
15190
-4468
12111
14482
11491
515
-1510
-912
2909
18792
12982
9866
-2063
20475
7514
10117
2708
15118
-6917
15699
5234
15885
1161
9563
-5360
4094
13937
8506
8118
8863
-1770
10733
8405
-7893
12896
15404
10906
14843
8131
10452
10506
12064
11763
-2308
-7344
10101
9287
15171
4283
15881
-309
3774
6969
2167
12436
2598
3785
4403
18743
5929
2755
10293
-5407
6973
8865
-4535
-3239
-2435
1988
6511
6451
-10037
5120
8945
914
-13816
9376
8115
-9017
11109
17223
8471
1324
-55
3997
-2575
-8171
3252
11267
4412
13359
-2097
-8352
7298
4328
10353
877
16987
10105
6775
6867
-8071
-1325
12912
7534
12557
8661
14157
-1737
18875
14867
6305
12953
10544
-8940
8859
-781
15585
5480
-6892
18270
1188
-5555
-3767
14973
2032
-11575
8685
15605
7925
14014
19793
2919
9905
9020
-8508
8756
-2878
5102
930
11421
10289
8889
-10997
5609
16312
4008
14197
12360
12563
14093
15238
-4430
-9274
-6667
12642
3635
13749
7480
18089
10374
-6235
20142
8999
3428
-1703
-10529
12118
-2610
-3655
7456
12188
8485
16122
1021
13976
9998
11675
14299
14312
-2119
-1430
4703
-6266
-13808
-8004
-1044
7049
10280
17042
17743
14989
-10864
6514
-7777
-767
16077
9201
5547
7406
8136
4937
7199
-5635
-13477
12305
-10217
15817
] 
