Format: C
Channel: 256
[ 
-2894
582
1095
4946
-1175
4501
-3655
9018
110
8052
9347
-2657
-3332
-1709
-4962
-1876
11775
1578
11456
655
1083
-659
7010
424
3971
-1482
-2300
-2024
1756
976
-2427
-1490
2500
2432
7327
3045
-3215
-7227
4086
2848
3419
1845
-6667
1251
-7274
-1874
-4352
-9743
1197
-657
196
-957
4993
-816
1825
-2792
6576
-3581
703
-2499
3120
137
15324
3017
-2230
12432
-767
-1772
5596
-6407
2
11249
2664
9079
14835
-484
824
2395
-1853
7905
6043
8731
325
5903
10965
2830
-342
1253
-1169
4906
8585
8198
1129
2083
4625
-11432
12112
10416
-2457
-2731
-6877
1954
-8267
1907
-11103
367
11412
-3743
5690
-3811
10594
4678
6990
-4788
-2512
3612
-5661
1935
1311
-2106
7719
5968
8599
2501
-444
-2004
-7488
2132
2149
1763
9965
-1111
6353
-3095
2258
-475
-1567
-2982
10005
284
880
-2914
1878
9485
-3937
-431
625
-874
-7582
-2953
-7696
-4267
-3427
3087
2963
987
3207
-5477
8600
6325
8450
1275
10761
8546
712
-3893
4015
-4321
1619
661
-6805
-4128
8487
-6602
3875
-4923
395
-6826
2535
2078
-1386
4348
-9307
8663
743
-867
1999
5770
982
694
-836
164
719
5508
-3417
5312
5359
-3369
-7183
-3669
-4980
-4148
4296
6979
3530
-7317
5958
8837
-3985
-5855
-657
-6220
9291
-366
-3545
13871
6356
-11476
5797
7197
-9785
-3903
-911
-7883
-5273
-632
-5924
8532
-5336
440
1120
9651
2578
2380
-3596
-3278
133
17
-3034
-2275
3214
-861
5032
6295
-6336
2491
8770
-3742
-6214
-4791
27
99
-2543
5504
5028
4989
] 
