Format: C
Channel: 256
[ 
5325
25050
15887
10912
-1369
6172
-4439
22327
15925
15794
26068
22309
-3946
1329
2735
-12364
2485
-2092
11456
32767
-8511
8694
30391
20946
-8330
27797
1480
7186
29050
32767
32767
16303
-2166
17194
13587
5745
7322
-3632
15117
20717
-10765
3156
-5509
1578
17557
14344
28192
32767
3110
-285
32323
32767
8063
32767
22402
11521
18388
18242
-598
21873
26485
-8368
-6262
-6025
32767
23486
32767
713
10589
12530
-3337
18435
11778
32767
18261
7252
6353
20243
22854
6838
135
9517
-9208
14661
9702
13597
-10979
9742
3950
3418
1306
5138
16404
16205
-4173
27128
8094
23953
-25104
4341
-14607
18383
16829
8629
26995
31822
28466
-2853
8760
6608
-3085
21284
8607
-3145
29010
-895
27519
14762
29916
26203
-3382
-8622
10968
21709
14693
-24013
32208
27765
-20398
300
-3045
22548
-9278
26289
16719
10675
-2300
25478
-12592
28000
9751
8231
12858
5922
32767
-1128
15207
9931
26159
28313
17744
-459
23558
32767
-1210
2052
1455
2585
4699
32767
21644
9565
-17114
6106
25508
27994
7471
5795
24228
-10440
18542
14392
32767
-21077
10549
24644
12617
26497
16537
12471
5853
8026
14530
10044
23673
23828
21000
26849
10460
27537
-9594
2335
41
4825
29169
-6913
-10389
13553
19340
20210
-17431
-5472
8734
24178
24641
19853
27748
21975
22375
32032
22677
-10043
18840
2411
14959
1145
17154
18046
7816
-10885
7920
21304
-7108
-3925
4624
4868
17789
32767
17097
1175
7355
-910
12597
32767
-18426
32767
13866
14635
31704
2028
31514
20333
18503
16371
2312
23966
10818
5554
15878
22632
30084
17802
-10031
27427
3758
5335
] 
