Format: C
Channel: 256
[ 
337
4897
3762
5380
4333
268
6374
1232
6142
-6350
1181
-9094
-14968
700
8951
-132
2066
1856
1250
5996
-5178
1378
1816
-10694
4362
10429
2372
-1635
3208
-16351
5928
6286
-3431
4976
2742
2910
3392
4725
4390
868
9143
1046
-7384
3443
7954
-901
6049
1323
-6828
-1899
7063
245
-2019
3693
785
-5429
2038
3480
11280
5889
-687
5892
361
4454
4558
7504
2732
5700
9279
888
11368
5991
9639
-476
-1467
4966
8353
6433
2593
467
7064
1430
6613
4137
-655
-1347
4491
605
8162
9151
-2684
15366
5726
2901
1231
7966
6044
-4363
2413
567
6837
-1985
4734
-982
6183
5888
9348
5750
2603
-10970
9352
9842
-173
1675
2266
5228
1
-823
3782
7069
2711
-3405
191
4679
5263
1759
5094
2819
3555
3073
5669
5868
3591
4856
3820
1844
2414
3467
-10389
4337
968
2081
49
10222
3224
9769
1776
2755
-2144
-1650
-2327
6459
-12384
1699
-800
-619
789
1166
4386
4684
5546
-6089
3550
-1364
3563
2939
768
5126
996
1019
-389
1932
-4135
915
130
-2040
2617
9536
1533
3910
-2687
495
1525
1736
7590
-17175
791
5001
7199
3417
-1400
5923
-2032
1324
-480
-3287
6965
-20555
8621
12217
-709
-2085
3163
1800
4324
-301
4786
-5207
-861
2474
-2296
8617
5960
5882
1811
4588
-1904
5104
4100
-17639
-676
103
8188
-5346
4892
10143
1170
-4042
-19687
4396
6522
392
3386
844
1943
5270
-3685
3346
2185
194
7930
7999
2565
330
5687
-1410
-3300
7904
7101
7497
-12045
-2748
3332
5729
-984
6214
] 
