Format: C
Channel: 512
[ 
1963
4468
8365
7743
3475
-6268
1790
3173
2104
1592
2752
-4625
1510
8389
-1798
12156
7098
6862
2387
5478
6974
3597
10260
7277
11738
-977
6766
-441
4436
3020
2892
8802
-9227
2744
13164
3271
9168
4208
-4838
444
6707
5809
1941
-3126
7815
1195
6022
3870
899
4108
4130
-1231
-5667
7818
11231
2103
-1166
2403
6457
8528
626
8917
6666
7837
3159
6498
13444
6356
-6539
-6965
1937
5322
6717
5443
10251
-7978
4819
4098
10388
3593
3680
2575
-8383
7463
658
11933
7694
-1295
-1197
7133
-5535
4140
6487
4529
-2929
-2281
4243
4995
-2428
3561
-4957
-8900
1632
7020
5525
-13571
9127
916
5085
5104
3354
5274
4595
4396
1571
8375
-214
8218
728
2617
3209
-936
1140
10403
4234
-336
5467
-6366
11481
6976
2477
13916
1131
8761
4162
11897
4729
12330
12760
-4732
4089
7918
9562
4206
-2401
6548
3329
5092
11373
-3997
2848
2233
-3542
5499
15642
20
6532
7136
2603
48
8176
11374
-2837
4741
5637
-781
-62
5222
-5964
-7440
3383
-2597
5141
-6606
-1788
3974
15648
-1078
-1071
8225
-593
14440
7263
11430
6686
13592
5079
8394
4146
8730
-2678
5266
2800
9467
2714
4382
1515
1602
-6129
13469
11345
9056
11421
14331
11729
5583
-507
-5557
8295
4600
5119
5698
-16663
5180
-744
71
6983
9143
3992
10489
5039
684
1927
3091
2777
3163
2372
16553
5739
-2378
-1162
6702
11534
1411
-285
8346
2752
8091
8814
1918
3331
6387
-2494
9473
2606
-6621
15260
4773
-3932
9032
-3861
4529
7933
10343
-1279
10426
6224
5276
9018
-4974
4319
6614
10490
5574
6419
6567
7416
3958
1111
7165
-6917
4808
8267
-5487
7466
13455
9189
5041
-5947
3963
9003
4691
-5846
4425
8551
-2053
6913
4014
3194
10588
-918
264
3472
-1099
-992
4480
-934
-81
16535
2378
8492
6275
8221
1807
4914
4882
673
-1841
5334
527
8778
-359
1519
5012
1880
5030
-933
8970
4302
4266
978
-513
-2782
-209
8954
-161
1420
6434
-3217
2726
7155
2903
11158
-2984
-2380
1951
2405
7709
2126
9966
8766
-5853
3523
10262
4935
-427
7389
29
-10835
1575
7162
13172
-1398
8745
6064
8511
3923
3304
4648
12568
5956
6805
2957
2563
11094
4897
8666
-7074
-5780
5317
11097
6878
4347
9014
7529
2810
2782
1698
-705
9382
5140
13397
6689
9257
7229
7464
7095
-7124
-562
-3796
11260
5145
-2410
1341
913
-2999
5137
6875
9285
1670
9701
3173
7617
-1322
2707
5393
-4688
4101
7406
8997
3323
5842
5509
8366
1182
11826
4387
1203
8123
4877
6103
6766
8498
-5403
3887
1990
-542
989
13722
-1747
1852
-3974
-464
-2322
2752
2274
6632
2169
8907
7744
8479
7423
3130
372
11067
7834
5598
3623
11761
4562
10187
5417
4399
-2948
10652
-3977
-312
6578
4623
8902
2301
9300
-1329
5558
7518
5494
4595
-3449
2844
2480
4023
4246
3748
5974
1105
3511
3963
11904
8135
-2197
-692
-1379
3511
5807
7580
11348
7122
7542
4744
7795
8059
-5546
7862
-11048
-3467
5273
-696
4068
14558
2530
3622
6245
-3878
1573
2324
-7298
1766
7232
10274
3227
141
2752
] 
