Format: C
Channel: 256
[ 
7080
4828
-1626
-1889
2821
8419
9781
4621
4121
9836
2520
-5719
227
-2575
-10009
-552
-1257
5256
8419
13440
-5178
714
-2543
1780
-7310
-1090
4818
9934
5148
10207
-5703
-1411
9568
-164
2277
9349
9324
5374
-7445
5823
-8196
11735
12274
269
5956
4984
2315
1331
6965
592
4561
264
4893
7341
13074
1644
8564
4432
-6678
-566
-7511
-4055
9015
6386
-742
9394
9417
1684
6723
-338
-2765
1974
6666
11285
7946
5132
-7536
5231
11421
8316
6925
4989
-47
6265
-8207
86
-7924
363
-6899
10681
-3547
13169
2457
6608
3366
3347
11639
8654
-1597
7045
-10575
-476
5397
3142
879
4411
-7748
-720
2030
3214
3240
6336
-3145
4335
1838
1861
-1384
1563
-2379
2831
-4124
-260
4265
-1924
4075
1977
9192
7782
3013
-267
14906
3904
9266
1597
-530
460
4574
-7143
9896
-6366
5090
385
2405
3936
8473
3010
-4234
-1371
3440
-259
1332
-2966
7255
-6018
-600
-3398
-1300
6206
1240
-4488
441
13528
7541
8976
6745
5094
-3652
-110
-108
398
9941
-8195
8417
5742
9951
943
-15567
-2127
-150
6273
7037
1211
5308
5827
-6320
8880
7403
23
5262
8172
6323
5321
1110
6650
11175
1306
4649
-737
4766
-8951
-8174
1034
996
2398
11824
1848
5432
4784
1024
-4230
10713
3572
4659
1529
7493
11254
-5409
4554
-490
-905
8950
-2107
750
2680
6177
1521
7758
6656
-1299
-1076
5249
9797
6408
4776
4039
4433
4622
7756
5777
10658
4718
9568
10157
-3065
-171
4084
-1383
5715
2480
5810
9593
1857
7889
9636
7272
2952
] 
