Format: C
Channel: 256
[ 
-1833
-9442
4047
10790
7357
-6010
6905
4536
-8393
9147
4983
-5002
-1265
-6356
-476
1735
-9952
-2388
9080
5747
117
4668
18080
4906
11368
16277
-1842
6428
40
15646
-9418
-859
5096
-14104
11995
-2747
7921
-2492
-723
6086
439
2323
9389
8344
3127
5947
-1299
2594
-2653
2885
15340
-8114
14452
-10554
18693
-6345
-8750
6972
1100
-2562
5145
6861
10739
15163
7824
-7587
19212
-10639
3979
-2307
-2454
-1780
-5460
5095
-1819
20746
8054
-1049
-2258
22353
1324
14533
4977
403
4186
-2253
6128
4548
887
12435
1484
15817
6490
13308
10864
-9059
-5285
-189
22128
20841
2691
-3542
14915
889
1787
1345
-13531
11565
14696
-9207
5243
-1668
-5487
3777
-1178
8418
-7678
7685
9956
-4322
-12380
13666
8987
6579
2608
-5778
3140
-508
-15201
7480
-508
3313
-3603
8702
8729
10670
13183
1467
-7557
-519
7068
17059
3676
-8601
-8254
-6939
8908
5637
511
-398
18283
9607
3165
-989
-3460
9162
8852
16425
453
883
4750
4427
12813
6602
-2757
-2052
11270
16166
12804
252
16269
570
13689
-1530
5590
1322
16665
11547
2093
8485
7303
9399
13273
13757
5387
17796
-10524
3276
12903
-4987
10919
-6927
602
2936
-4366
10021
-7325
4541
-1944
-3750
-4024
11124
10930
12187
-2968
19344
1842
-737
-6577
16651
9259
13676
4719
1506
1172
-971
18828
3897
-3442
9424
11209
4226
5494
5715
8084
13169
-4594
10172
7553
12927
11034
4928
3694
2294
9239
5089
12067
15178
2513
7577
13409
-15794
7166
9169
13531
8887
12003
16432
1716
-18247
-386
11581
12233
-13316
3382
8978
] 
