Format: C
Channel: 256
[ 
5428
7611
12579
5047
3624
6346
-10345
290
-14481
-2857
-6902
4997
-848
-8997
3000
11078
1644
5226
4717
3372
13932
-781
7861
-8934
1313
10155
-432
7535
6933
1561
5586
9207
-3192
5503
9924
10447
-867
11664
4224
9014
1619
4466
946
6916
6588
11408
3769
-1824
-3928
9177
4992
6361
1825
3190
6459
1854
7593
1565
7941
1119
1815
-464
6014
15464
5895
11629
1704
6837
333
10162
-1479
615
3441
-2873
4177
5412
3356
-9149
4032
17893
9299
2374
5015
-1742
6375
384
7326
10994
6369
3912
2897
-14895
5710
4790
3189
-5670
2180
12936
3117
3351
16690
4796
1966
-2183
4304
3487
11543
7641
-34
11163
10937
9780
-6066
606
-3961
-3419
4497
7065
-2769
7538
4520
-2763
2764
2463
287
-4625
-2192
1720
-9206
-5433
4125
6498
2127
2622
5262
3096
9286
1474
139
2162
6037
-1309
5414
1223
3066
2003
-8311
3643
-416
7382
4911
2543
-4677
4780
-1922
1411
-1588
4209
-1902
6579
-4156
10483
-2301
10193
12212
-911
-2399
5379
693
6371
6883
64
10024
6315
10076
205
3209
16276
3394
17918
7198
3413
12153
1493
-364
3333
8993
-5860
288
2030
13409
4175
1540
5819
-14159
10594
11797
-1693
6768
-48
-1678
16731
13567
3539
-877
13926
3928
7829
-6765
-4926
2696
2834
4582
-1592
4982
2262
1320
4566
9215
5296
7541
8951
576
-3147
6547
9039
12048
1385
-2025
8591
-4943
9811
2982
-4072
3164
6635
19510
6905
3718
1495
-1793
5507
3345
-622
12339
7024
4665
9577
2129
9287
11927
11649
10096
5525
4611
2133
] 
