Format: C
Channel: 256
[ 
-331
1165
-1195
14276
3424
6158
-2318
6221
4438
-8266
3346
6014
734
4302
-9597
8246
6178
6345
14844
11231
897
11809
1163
-7050
-4806
-2800
237
3765
5273
-148
60
2951
7877
5553
-380
5458
805
-5676
2194
-1361
2717
857
-1331
4298
6707
-616
2424
-4318
-1678
14332
3065
9396
-4081
-926
5510
544
15449
-1585
-3899
1716
1963
9941
4401
7856
1137
3806
3870
2558
-2855
-12439
-6143
-3987
2878
3392
-2148
1728
3234
1754
-181
61
1514
3015
816
8794
6092
6362
383
-5796
2611
1194
2453
5968
-2268
6305
-11481
1240
-1040
-350
-4326
-3967
-4363
-1325
8659
8020
7408
-4656
780
960
-3969
-1897
7774
10745
884
-9319
5823
-311
-9754
2892
11067
1420
-4246
2069
1067
-814
-4452
-7150
7895
-2255
460
-3898
-9807
1517
8053
1488
5047
616
-2246
-3833
2461
70
-1649
-157
4197
2150
-6289
55
-1277
-403
-2004
2680
1645
-2903
-1453
2176
-996
1296
-10080
6061
-2772
-4080
3473
1210
7861
-1706
-1015
-644
2693
868
1672
287
2645
-6526
2990
6352
-4592
10333
-865
2763
-3631
5090
2360
2486
969
-760
4575
-6410
-4194
4243
-1715
6194
-3018
403
6503
-4936
4922
4467
-4046
10458
1888
-6184
1015
2211
3254
2783
937
4402
5146
-1145
1705
4154
3958
-1237
-3327
3453
-1431
1497
-587
1627
-917
8813
7303
5823
-1732
-952
-1047
5124
2814
-1917
4649
6962
207
-139
2109
-264
-4811
4182
3604
5674
2231
6536
350
3992
2498
4108
-869
1693
4103
297
-27
4200
8650
9664
-6617
6906
-10897
3492
] 
