Format: C
Channel: 256
[ 
1344
-1807
-3206
3714
1740
-5266
90
8422
3788
-938
4335
1147
-4382
-1608
-705
11295
716
318
3130
-1461
-1062
-5253
3905
50
-2936
1539
2266
-7602
2023
-5545
-1022
1967
3784
-4434
718
-1834
6220
78
3092
-563
-4139
9966
6631
3220
-1826
9874
1381
-968
5563
1319
-2610
3969
10207
3328
1629
4231
415
2185
293
-3690
2229
427
372
-7913
1482
399
7409
-1830
1625
-4757
4435
8363
-208
1082
-967
6455
4975
1762
12402
12881
-775
1147
2180
-1922
10583
325
506
-3573
-5626
-136
790
4881
3912
5882
1359
933
1172
-1253
-1424
-3017
4065
665
426
-4494
-1333
1914
1123
4469
350
3509
-389
4213
-198
6407
11487
604
7487
2966
-1593
-953
-1700
9466
10918
1433
410
-741
3557
-4852
-638
4876
-2520
-4587
5440
-2588
-1237
7385
-650
-2524
2538
3205
6077
1375
6748
-936
620
-747
7686
-316
-2701
-993
7010
-1073
1167
-866
-3441
2891
7155
1571
-1854
5204
-4365
-1809
11258
-7168
342
10511
1372
3062
2118
4882
3944
489
746
165
5912
4308
2071
2073
1834
-1195
26
7780
1528
6328
5982
2392
5632
10225
3540
-414
1015
3441
2234
3373
860
15653
165
-1040
149
5534
1941
-3785
11245
2892
-1972
450
5066
36
1423
2972
3200
6649
458
1841
4897
1154
-4007
-2017
-265
8532
222
4606
-817
3935
2716
1020
-1224
1510
-754
-513
1927
-1152
890
2902
995
-461
-332
1382
-2120
-1496
541
-657
-676
2645
2043
4148
-666
2433
10459
832
2465
-1335
-7152
-37
-768
-302
] 
